{
  "schemaVersion": 1,
  "obsVersion": 1,
  "arch": "mlp",
  "inDim": 59,
  "outDim": 5,
  "layers": [
    {
      "type": "dense",
      "in": 59,
      "out": 128,
      "activation": "tanh",
      "W": [
        [
          0.17295624752365812,
          0.09748259392760109,
          0.18017900347154556,
          0.20790899583543138,
          0.07160947862257408,
          -0.0850356699927557,
          0.4259725556783055,
          0.07086596736307499,
          0.32661977674938136,
          0.02581653488172162,
          0.10912376944648723,
          -0.011335125677639267,
          0.027364524545542352,
          0.1787782243765742,
          0.24907562779787956,
          -0.48917258206385217,
          0.08211269294517083,
          -0.11939816873966738,
          -0.035561892342467316,
          0.0344401323355655,
          -0.034519124597742645,
          0.10660950382529029,
          0.163035335347242,
          -0.14977447157216822,
          -0.03126645703925686,
          -0.08054635289127798,
          -0.018422195635721627,
          0.1194748812010918,
          0.04730468109832541,
          0.010142265542022771,
          -0.13789514866617283,
          0.4474415675176418,
          0.3778604250492712,
          -0.20304666692494056,
          -0.0815642688227976,
          -0.3630949957010848,
          0.015489362802569764,
          -0.05952085320906293,
          0.05507297495916612,
          -0.10869543264837518,
          0.037712699942073144,
          0.08336045063371833,
          0.14215350188710765,
          -0.3628857016604201,
          0.16988745351081555,
          -0.004477438524833337,
          0.22939443477566301,
          0.20730612184855304,
          0.011729428488616347,
          -0.2628625478124527,
          -0.29188048620409324,
          0.09284467443532957,
          -0.13364662238044492,
          -0.018348999485351826,
          0.24717538806076664,
          -0.1147761780277853,
          -0.006818663855588414,
          -0.05729749696739406,
          -0.15950930156000817
        ],
        [
          -0.43234552254112585,
          0.2552081370889864,
          0.2085413891776391,
          0.0020754791335317914,
          0.02964647510292192,
          -0.3464580393499489,
          0.33513931126139584,
          0.029187060478455998,
          -0.0851515096531985,
          -0.07870257705662842,
          -0.21768834638868584,
          0.02354065020696712,
          0.04235898498257571,
          0.01905980030755346,
          -0.006359791337835035,
          -0.02777819167412094,
          -0.09653340181886222,
          0.22898003354848157,
          0.07167541311889994,
          -0.07514806861470161,
          -0.006801199036978008,
          0.02828797203435095,
          -0.4274624154873961,
          -0.15671722881744374,
          0.19708551510054836,
          -0.1484174218371901,
          -0.11129606269735587,
          0.10161931991049067,
          -0.27050107496634457,
          0.4358089654676098,
          -0.07649957461673824,
          -0.30300218416581076,
          0.31581780599879405,
          -0.21254199315817954,
          -0.12222327882658449,
          0.20131470066991128,
          -0.08672958383136503,
          -0.0015905355249096228,
          -0.032532422543863605,
          0.037507640231163736,
          -0.2151628105125081,
          0.041747955051782984,
          0.08061858724960531,
          -0.10198507877142364,
          -0.146398132865941,
          -0.14434601327660934,
          -0.05542209928482942,
          0.044454839269451,
          0.014715644197693504,
          0.04871033199150742,
          -0.18864582552882708,
          0.15601948752219208,
          0.22402200428163063,
          0.015905530804674512,
          0.2504303240921713,
          -0.1299288211156086,
          -0.38014203576184213,
          0.17562368970144926,
          0.20621726985793865
        ],
        [
          0.11507209011438134,
          0.08289287022384524,
          0.10046123043127164,
          0.004547386314357298,
          0.1144490768896124,
          0.17735924612163137,
          -0.3796625225536736,
          0.042248665455901835,
          -0.10224110686637156,
          0.07758788945707591,
          -0.14180538610926105,
          0.17343366595835447,
          0.15506927635318005,
          -0.029045034001044287,
          0.012603364954340269,
          0.1758159407705233,
          -0.06400435435939789,
          0.1940165827259274,
          0.2163666738826775,
          -0.2950410152857814,
          -0.08191585555388872,
          -0.02967851431034008,
          0.3053242901608115,
          0.14253655087186903,
          0.07045234825034184,
          -0.09082642795989246,
          0.010039139773794569,
          0.25622784862519715,
          -0.10423232373714883,
          0.03227373246595266,
          0.17410460551689014,
          -0.024989235939643105,
          0.19214735120983745,
          0.20310826529702086,
          0.09779806893100283,
          -0.001616466155057947,
          -0.2616816191337182,
          0.0021345703945754237,
          -0.2341480492654876,
          0.05002421298451715,
          -0.43350058696010746,
          0.1673704479506749,
          -0.23413297871903288,
          -0.08099775913304122,
          0.26827521245590646,
          -0.030720771529341318,
          0.1715075600823242,
          0.09619946811942993,
          -0.12745983859639454,
          0.35711920706589834,
          0.10535184491209351,
          0.021522601735283448,
          0.010825972222673994,
          0.23054357560036456,
          -0.2566025249861876,
          0.055431404055387636,
          0.4542116321497159,
          -0.08319201758295955,
          -0.21115680716923202
        ],
        [
          -0.1403009172537635,
          0.0879274685349696,
          -0.2852910269580043,
          -0.2643572607500387,
          -0.3669874481832524,
          0.24424680773785112,
          -0.20918842896966588,
          -0.056019548105211876,
          0.0015245942803753978,
          0.22477089593110744,
          0.054747797531952684,
          -0.07159298828345548,
          -0.022425409108570993,
          -0.024277489389195016,
          0.17849527860103467,
          -0.138837885102866,
          0.11997272200456613,
          -0.1889108976991871,
          -0.010204894073331713,
          -0.07219211874196609,
          0.0613031672297146,
          0.32936024682019105,
          0.046077898289380435,
          -0.17867214063408368,
          -0.030612432297294715,
          0.3546939350799007,
          -0.016693845333650592,
          -0.010888593300122072,
          0.21285964214865905,
          0.06850779604941064,
          0.3342938593110261,
          -0.13812957956127594,
          0.21849748259666538,
          -0.002318234436119823,
          -0.13096623988884493,
          0.3735558102171422,
          -0.09200119908602628,
          0.18962422850521532,
          0.15970668951200462,
          -0.3274837092943557,
          0.08028255443020932,
          -0.026544642125599906,
          -0.008475980044433765,
          0.149114988421586,
          0.12272049064458238,
          0.281262399794723,
          -0.08947678613679544,
          -0.02440527095097306,
          -0.21251576797814553,
          -0.11889775118458736,
          0.3140965013327878,
          -0.17980938839906283,
          0.24959236373706586,
          0.0901030470877106,
          -0.008648081497136395,
          0.013981886638312156,
          -0.2749246607912816,
          -0.35040796137790653,
          -0.06688220568731451
        ],
        [
          -0.004907187583008802,
          -0.14509049708232064,
          0.0702254579734666,
          0.3202540805598592,
          0.17506232659376866,
          -0.06064390451299674,
          -0.028590218259914004,
          0.032052727527993985,
          0.0106065762484469,
          -0.24680566862877995,
          -0.040670138658486024,
          0.11541283498739925,
          -0.1015961027867621,
          -0.23852044408832715,
          -0.19172195474325981,
          -0.03322469456401027,
          0.018217816833277955,
          -0.16788100648844614,
          0.1262046181772482,
          -0.17430490433272594,
          0.007969174706967213,
          0.10701184425690528,
          -0.15169133426363046,
          -0.1853846772877512,
          -0.07437660356092955,
          -0.26672886298996823,
          0.09131114395196108,
          0.12246685582348515,
          0.11003500959353955,
          0.1481692017458655,
          0.1435278143416684,
          0.28088977898300677,
          0.26396408441000824,
          -0.12265371000033966,
          0.15900491624088203,
          0.04239708317185142,
          -0.016189857283051386,
          0.07900770749915594,
          0.1906512352251125,
          -0.15111521187598476,
          0.08808515510867126,
          -0.23491999350692994,
          -0.3689909246930967,
          0.1574408842829465,
          0.07807976000304818,
          0.11750035063044388,
          0.08912721420500999,
          0.09766575275982256,
          -0.22684155360255343,
          0.02943046184515319,
          0.03647450814896946,
          0.18319351108395046,
          -0.01063649098485223,
          -0.2158330777379095,
          0.05421586033721109,
          0.1469292245772722,
          0.014056963714500732,
          -0.2183668900023531,
          -0.20208696960247638
        ],
        [
          -0.18538833769676455,
          0.2165664255703419,
          -0.2709852413748491,
          0.24042518477023125,
          -0.20633679959687623,
          -0.16890320252187674,
          -0.026470423579699254,
          -0.016769144542655004,
          -0.26013436255619427,
          0.2282846145418129,
          0.034956612433868314,
          0.2039709507815484,
          -0.028786719388577076,
          0.04743627425274505,
          -0.04460641726309806,
          -0.44098601602113735,
          0.22582186552810465,
          -0.11720217570008327,
          -0.06561595706268288,
          0.024359327561674176,
          -0.1649052436889259,
          -0.012593091348059231,
          -0.029980927393483136,
          -0.3911847669005535,
          -0.11646280504958322,
          -0.2542942903893459,
          0.008389727758097721,
          -0.10495889282811836,
          0.21076808080810547,
          -0.03995594207013685,
          -0.14303785150826673,
          -0.286075530819944,
          0.09569997958987052,
          -0.031882526303259794,
          -0.22369329031380483,
          -0.07902565743328539,
          0.12283707702967919,
          -0.16584716951057846,
          0.03263964648524829,
          0.11742226076395063,
          -0.023187710997505655,
          -0.19132698011617935,
          -0.11535560714273102,
          0.14578531177907778,
          -0.2969075493102943,
          -0.04394083476116536,
          -0.031018362396456372,
          0.11410383975465384,
          0.2580746823548722,
          0.07736477002605673,
          0.07939143075268365,
          -0.18070515379885826,
          -0.05311793347388522,
          0.26156726624780585,
          0.06368522445981875,
          0.054830329048918276,
          0.14513393099690505,
          -0.02326649273440136,
          0.17896228492199384
        ],
        [
          0.1265723779779556,
          -0.13710584698535183,
          -0.17585613181409918,
          0.14453899758401428,
          0.012333221757991019,
          0.11266901054510149,
          0.4754784720486672,
          -0.04427843089589038,
          0.061496024245860224,
          -0.0331769684841983,
          -0.01435573406356791,
          0.03766200764993702,
          -0.03504966142704693,
          0.03804181188587798,
          0.11391009904733007,
          -0.23851827869993328,
          0.44642293340918576,
          0.008423408829665836,
          0.04268152427003785,
          -0.057181419462659984,
          -0.26765711541536436,
          -0.22141466451197273,
          -0.36272594440860373,
          -0.11952964988619894,
          -0.24645363365408585,
          -0.35124664461490085,
          -0.05587410045895386,
          0.08014590269527921,
          -0.14439057816835302,
          0.31237031925948056,
          0.19874604360100706,
          0.013323673862044088,
          0.1382876314297888,
          0.033936832430715325,
          0.019771507064447812,
          -0.2217073174443213,
          0.6429985079148433,
          0.19988986713187215,
          0.1421033749277231,
          0.20545110922518353,
          0.3889673918612358,
          0.2977393258981724,
          -0.13925548545950714,
          0.2762478891748712,
          -0.008044372049762804,
          -0.008489401555005466,
          0.17592622979646313,
          0.3672032045008796,
          -0.0500662594270208,
          -0.0029198867189282576,
          -0.2932593636879,
          0.09301224006512958,
          0.04398389809730118,
          -0.022459110792001184,
          -0.3942559066548515,
          0.07004390600479377,
          0.03563633377169189,
          0.053911323922784304,
          -0.18876991326159187
        ],
        [
          -0.30848940511380124,
          -0.22721233229439977,
          -0.3087949243986732,
          -0.12719249234755212,
          0.01386736942032055,
          0.010202075569321229,
          0.2501988607195451,
          0.13312170375666832,
          -0.03024007350970683,
          -0.2845821946358806,
          -0.13995181748963628,
          0.2695388794001268,
          0.3148442482908198,
          -0.26707694768865303,
          -0.24354087121237228,
          0.2622079083756704,
          0.03166442555053131,
          -0.4408088769784956,
          -0.11010451470730448,
          -0.2596989353126161,
          0.16699718802456828,
          -0.02022480582130904,
          0.10991598620261867,
          0.34693373801986843,
          -0.19011091770221242,
          -0.2926244310639028,
          -0.18131419856407102,
          -0.12839817224964273,
          0.014232742770567457,
          0.2208144894636085,
          0.04864846032600222,
          -0.13134819015747579,
          -0.180368815696885,
          -0.3105403131847278,
          -0.22598915473147824,
          -0.2810592324250762,
          -0.20006133782601035,
          0.1597061801814406,
          -0.1620484080343669,
          0.10864351623821454,
          -0.17723859211020687,
          -0.2495590034564798,
          -0.17547096811176058,
          -0.04633636684581955,
          0.16827035163808726,
          -0.13323617516503303,
          0.22325874778695004,
          -0.2681755823239364,
          -0.03580674540449486,
          -0.08271260892818601,
          0.04568779292770071,
          -0.41940862448130517,
          0.20054710753331256,
          -0.005280499865314692,
          0.25866261584670436,
          0.04664567519756641,
          -0.14665681209264286,
          0.30452892226366096,
          -0.15023424781542669
        ],
        [
          -0.1627441972952761,
          0.009843255373094007,
          -0.10512272054875427,
          0.012980707420927816,
          -0.16309584106006006,
          0.07547741562501521,
          0.39817258193445537,
          -0.0856789464133549,
          0.10127424776293402,
          0.06977801125220467,
          -0.04529022026197948,
          -0.06276404336321745,
          -0.11404447588929376,
          0.019747534778847452,
          -0.23125247025221712,
          -0.13158355141854228,
          0.04953383073051525,
          -0.18805102978518573,
          0.16484592607038714,
          0.19172633526431712,
          -0.2843265785936115,
          0.14694807327387802,
          0.03384422355142147,
          -0.057470153306727896,
          0.15382920944831074,
          0.08801804342782414,
          0.20397598682264406,
          0.03353496512656631,
          0.0009089942352727584,
          -0.19742980981399347,
          -0.09644528789649333,
          -0.1884526140343311,
          0.14346220284371508,
          -0.17601563812384627,
          -0.26296250883222433,
          -0.20879056688222292,
          0.2889152968156442,
          0.06330434700834707,
          -0.03534263810711464,
          0.20730350367479927,
          -0.0012517615284557064,
          0.33303867132693077,
          -0.09953559580126309,
          -0.09158932494015046,
          -0.14114018248131022,
          -0.033990745644295696,
          -0.04951993876837583,
          0.08734584086551377,
          0.22274662241064824,
          0.25142868667428314,
          0.16703912330585122,
          0.15378164799862165,
          0.06568629483326635,
          0.04304418102128526,
          0.12222012055331999,
          0.16186097879398723,
          0.07146903178764666,
          0.4246338824065264,
          0.16071290273027794
        ],
        [
          0.14681488430354656,
          -0.26872794375236403,
          0.19580230059682208,
          -0.46179423158513855,
          -0.15284901505198742,
          -0.10713216809515683,
          -0.19820114135843336,
          0.08016365312481825,
          -0.06581962775561702,
          0.2155150910813714,
          -0.013859548545443951,
          0.2108592057263201,
          -0.25752131670273126,
          -0.2357283355759175,
          -0.0018663770630453326,
          -0.179485041551799,
          -0.270896045541966,
          0.2885899679707952,
          -0.0717734620161321,
          -0.0935386736441505,
          -0.2559005256211306,
          -0.15819479348345575,
          0.06517843629830923,
          0.1617170966330569,
          0.10042143366305467,
          -0.05442820273449358,
          -0.08524427178224675,
          0.04626257761449783,
          -0.23532566908728522,
          -0.15416298609597462,
          0.17171728427013688,
          0.042088765093009274,
          -0.18573988975367914,
          0.09686223103761417,
          0.20874362901058915,
          0.07218358216198725,
          -0.037526249551736744,
          -0.4844451049371564,
          -0.15900119314418923,
          -0.2687470979119027,
          -0.10446767784447417,
          0.11019940789841125,
          0.04492830233349845,
          -0.3408285849557473,
          -0.19417108620900853,
          -0.07309679683639995,
          0.19495981914452085,
          -0.19018950483069652,
          0.25429243257104645,
          -0.03857153835013881,
          0.3271875809543517,
          -0.1480470814481307,
          0.11756927640939988,
          -0.24840465267118933,
          0.15578733658341454,
          -0.1330483231807326,
          -0.18927119751557867,
          0.10521570076432857,
          0.07250754582663937
        ],
        [
          -0.10030300156916548,
          -0.15296396479680602,
          0.2012000530723851,
          0.14477024142848202,
          0.09050864123521897,
          -0.12708643095745503,
          -0.4613890358459066,
          0.23120521339269992,
          0.17409813722049894,
          0.09488773028646036,
          -0.04622886165888786,
          0.036285301867334065,
          -0.02429894985651559,
          0.2436753792372454,
          0.28048069798176534,
          -0.07400686774802619,
          -0.007225500895522856,
          0.06316622035530893,
          -0.02111923389098365,
          -0.05558482749691753,
          -0.12242925590996273,
          0.1466751582403391,
          -0.14596412739863018,
          -0.05045834849156389,
          0.08458777588970803,
          -0.25602998314729786,
          0.5489785520968109,
          0.11766555228778804,
          0.00030665465923834415,
          0.056224064724238555,
          -0.23804446694874354,
          -0.06409572759275702,
          0.005821137469819335,
          0.0556697299552349,
          0.0690692021792226,
          -0.15920375799886036,
          -0.0879500680332326,
          0.21086050596459352,
          0.09154511968896056,
          0.14890450390884705,
          -0.08611129474694512,
          0.18109465253650087,
          -0.049477169921753876,
          -0.01659358244924423,
          -0.045904575343789486,
          -0.1515188124591141,
          0.041614423603535795,
          0.05574496916127265,
          -0.05265389839597841,
          0.06332800641476,
          -0.1367480410009759,
          0.2548022664448937,
          -0.0035221130343758263,
          -0.20107022917505193,
          0.03819044069154689,
          -0.021836160248814854,
          -0.058761286659651676,
          0.3398348678952647,
          -0.34430869598912456
        ],
        [
          0.4449276272582089,
          0.08018376138468206,
          -0.024830735500532056,
          0.2687254251572164,
          0.2962999500956442,
          0.08785166151962978,
          0.0226547008731433,
          -0.37525477779637034,
          -0.05484858625102634,
          -0.20267088351821164,
          0.005380481000389878,
          0.2672409317599,
          -0.2580077489258268,
          -0.2915174881603362,
          0.09007471119530214,
          -0.10258928027368792,
          -0.1371283272784822,
          -0.07750179455329043,
          0.1436628902830478,
          0.17385043125885463,
          0.21876353022072004,
          0.019022946930395527,
          0.012056479348208842,
          0.10504117148781843,
          0.15315111918745877,
          0.2192245922585181,
          0.02073576200829627,
          0.1858964731945853,
          -0.04893686178674992,
          -0.3652199879570948,
          -0.21991573081128593,
          -0.13496594318402566,
          -0.07116396295472176,
          0.2867513069335803,
          -0.22290824732335865,
          -0.027946330780760042,
          -0.1067041075412885,
          -0.021181196209853793,
          -0.11577279867794879,
          0.06345463906091288,
          0.1428996961282224,
          0.008274931011272161,
          0.22957287474391963,
          0.04702271941426603,
          0.007196627966305779,
          -0.14569956560954958,
          -0.12571997408005292,
          0.008671023740616709,
          0.04372868054207481,
          -0.13497160327746086,
          -0.2731265446658847,
          0.1718528526464047,
          0.2619765616380049,
          -0.13464376723713173,
          -0.19752890479409452,
          -0.1626634470734162,
          -0.1577581543164568,
          0.029031176170394597,
          -0.0415668986220734
        ],
        [
          0.4870173245517351,
          0.0029008162866118957,
          -0.14683395986822126,
          -0.34555835598754475,
          0.06555238257936069,
          0.09045267091784381,
          0.24847042810101702,
          -0.3339203524460447,
          0.009784900065559732,
          -0.23956064044352054,
          0.036044439494431264,
          0.12211612230703654,
          0.14686162973753578,
          -0.09772418152043447,
          0.15507218681791704,
          0.020480407518535165,
          -0.14442464558416923,
          -0.04263870433484516,
          -0.008490901150072385,
          -0.015509946881754985,
          -0.12035543612427753,
          0.06036082208665532,
          -0.040732342463853106,
          0.23648668835381492,
          -0.1511899416875177,
          -0.08700248460279106,
          -0.29723056508033846,
          0.17799327551627922,
          0.12431576297643085,
          -0.24562455591789062,
          0.12878288556683326,
          -0.07069115172238757,
          -0.28704303854751345,
          0.06124389827920399,
          -0.03999587519923181,
          0.5678189962897183,
          -0.02249383277127835,
          0.10389490903629356,
          0.5614706099621651,
          0.008353641005673977,
          -0.11811137480160311,
          -0.10961143047419404,
          -0.021750255146430336,
          -0.159311809694692,
          0.27895698118501505,
          -0.11719637836058804,
          -0.4171859203731748,
          0.10114767943679231,
          -0.17841028726901578,
          0.19415401635841684,
          0.04236278243232701,
          -0.07170683074292585,
          -0.17048573559634236,
          0.10591462386724024,
          0.020291329571101007,
          0.12812213100847403,
          0.29879917928917227,
          0.17979672020523876,
          -0.11260126724335763
        ],
        [
          0.22574889223193464,
          -0.07241418502820875,
          0.16407550886108777,
          -0.0612868928245031,
          0.1391522510367123,
          0.026039061553615555,
          -0.5410760812780231,
          -0.05813296168264836,
          0.1666516899897856,
          -0.371445128987912,
          0.04872962005377155,
          0.3145247671149887,
          -0.013053133261401105,
          -0.08711042899369628,
          -0.04771560241005139,
          -0.0055400010178281636,
          -0.14551516220393076,
          -0.22205678700672,
          0.08518471403908098,
          0.0636777959978082,
          -0.15542090780866838,
          0.09486806544339337,
          -0.07074883043702088,
          -0.1869197984594837,
          -0.02635681035411895,
          -0.15931861528130772,
          -0.03662349544165549,
          0.015196931925492986,
          0.2896564493182611,
          0.04539899524982421,
          0.009688857088040367,
          -0.021980173322832024,
          0.04696864922315206,
          0.021200824992272552,
          0.17320368161575372,
          0.05609210444792218,
          0.1895126753969981,
          0.14111096879569754,
          -0.03972261793535273,
          0.041433090991170554,
          0.006239943850801124,
          -0.037484342879320544,
          -0.06262041258267169,
          -0.016701447675224912,
          0.1014520921277358,
          -0.006527611809662368,
          -0.45880383189620355,
          -0.1679559189862281,
          0.09125204669270191,
          0.4274849609381284,
          0.05602983468457707,
          -0.031842959083362585,
          0.04938002991630239,
          -0.00927754253300976,
          0.00005984446883280465,
          -0.040416461147638416,
          0.024671309391734828,
          0.2096408143381996,
          0.02651309072371817
        ],
        [
          0.06280305941872623,
          -0.12106241204295526,
          -0.052593620256210595,
          0.08993517302925676,
          -0.025857145491930897,
          -0.397119229641622,
          0.009915802606154992,
          0.17020213287466016,
          -0.21902842042374784,
          0.0026447488263586297,
          -0.26601658422916646,
          0.16700093985749262,
          0.17277362648983807,
          -0.026867281340859025,
          -0.1368036640512314,
          -0.2106304301887854,
          0.2077755121474488,
          0.0636760839157958,
          -0.24868012841755285,
          0.2532753207437736,
          -0.0029436736478486,
          0.06438027721927915,
          -0.007001982888340707,
          -0.22681610016517703,
          -0.1817013025132785,
          0.005006801360692395,
          -0.03412350665120067,
          -0.023791707869839796,
          -0.03895738666221936,
          0.14794984536783834,
          0.20130983025329144,
          0.05583974700941415,
          -0.056147228911376856,
          0.07918298190577638,
          0.0954088742525302,
          -0.17231826253011792,
          -0.008175200543013284,
          -0.08181805146848552,
          0.10687653842133814,
          0.0022564213789387656,
          -0.10524679505439143,
          -0.14605708028362396,
          -0.08380045676954563,
          -0.08434403709017216,
          0.0011854510066483582,
          0.014024547657770205,
          -0.38073043459082684,
          -0.011589613153489465,
          -0.22901996859146498,
          0.1585283094229765,
          0.2944084849551289,
          -0.27426143756833515,
          -0.16782386061288654,
          -0.006053753592578264,
          0.16397085200899406,
          0.22972210362664264,
          0.25096220110943995,
          -0.37556259463606984,
          -0.2635119239179934
        ],
        [
          -0.12303695378296814,
          -0.43767853753693353,
          0.24360094733537174,
          -0.09846682077691751,
          -0.1465942223952113,
          -0.17202068606234394,
          -0.6438888986610489,
          -0.020688301279832674,
          -0.28505985453337784,
          0.11861714265006983,
          -0.07960921084713399,
          0.07717134562126213,
          0.08438940206436511,
          0.37791128416242414,
          -0.04663815536878113,
          0.15314833445001846,
          -0.07568398533596268,
          0.349007058869674,
          0.0873492525467924,
          -0.22743378716767557,
          -0.1847461338864828,
          -0.12205884515908207,
          0.32979435123822204,
          -0.19425258283391467,
          0.19903415571453512,
          -0.06809251260512315,
          -0.0861009074878846,
          0.1425124515274284,
          -0.14729369401184655,
          -0.08820496087362716,
          -0.16763505109176843,
          -0.022296659380591683,
          0.17242682403169254,
          0.02625420461202328,
          0.034133919377585836,
          0.12446472456990233,
          -0.058079338054095285,
          0.27131954461229246,
          0.020761153603307367,
          0.3597086919511289,
          0.14630120631000662,
          -0.012841826722595871,
          -0.08330144363384705,
          0.03495319414252423,
          0.07312108939792529,
          -0.22666876180726847,
          -0.2874795833614425,
          0.12866263269333553,
          -0.043849651561787974,
          0.2045716732035674,
          -0.16873596995813767,
          0.15042131199485204,
          0.14662516229005879,
          0.03842581454854221,
          -0.08122930368720259,
          0.12251249693002728,
          0.20325136599721164,
          -0.1510902675102868,
          0.08879711964257375
        ],
        [
          0.0726654775723099,
          0.012613020903233374,
          -0.2040638998531065,
          -0.0776770808299464,
          -0.18490785967829068,
          0.009015087136510098,
          0.27492303261392337,
          0.2018580570642973,
          -0.04602735800050103,
          0.09415797928512913,
          -0.055457818571484796,
          -0.055138610189957686,
          0.19095763880005454,
          -0.1255376116293641,
          -0.10843777426894219,
          0.048398378721865414,
          -0.2132701216275334,
          -0.007856076223740892,
          0.0355014536101202,
          0.055163566566328676,
          0.0943432693227037,
          0.2551599461532267,
          -0.09117034061732096,
          0.1202514497992406,
          -0.14521581706584832,
          -0.2550374369609925,
          -0.019794036887635088,
          0.0320365428635779,
          -0.19195514730985067,
          0.46732387203687453,
          0.0314737517646288,
          -0.028301164653464533,
          0.01420831116599451,
          0.1553733211467019,
          0.00125534415541362,
          0.01980317183591311,
          -0.04846074991474373,
          -0.2469664771800559,
          -0.12283285985514857,
          0.21512046752380648,
          0.035917943885373824,
          0.28462996737093527,
          0.3514058467688943,
          0.0691366375215683,
          -0.09338223148995949,
          -0.2236547553859586,
          -0.24226408893601223,
          0.09980496520543468,
          -0.1049004207218216,
          0.13277103636981544,
          -0.02945759230557624,
          0.10057824253756333,
          -0.0800433910756265,
          0.17366046792237308,
          0.12918009113142198,
          -0.027371116241980308,
          -0.13582400647722298,
          -0.10316734771752224,
          0.08159802314833121
        ],
        [
          -0.4708855292631925,
          -0.10571896086216846,
          0.2805922431724576,
          0.04392247930941518,
          0.0676883261247751,
          -0.11114809704490253,
          -0.06504485651997749,
          0.14858571811204122,
          0.018863833236285505,
          -0.0018255996486768605,
          0.2790268618991825,
          0.021889337668778295,
          -0.0006647957083308952,
          0.5138156038977065,
          0.11111162196858881,
          0.008114530567038607,
          0.14463720514957257,
          -0.04552440337611333,
          0.05873236916017925,
          -0.13690665585717793,
          -0.010396578545828919,
          -0.14247742520204643,
          -0.1748647215901551,
          -0.19468526595476113,
          -0.029273156460839767,
          -0.08011170041753315,
          0.20220747856553167,
          -0.19332865348154527,
          -0.26817959677977954,
          0.022026195203424522,
          -0.06948113024582236,
          -0.2581953830739922,
          0.24360995240333147,
          -0.02191332622795536,
          -0.25083862514833866,
          0.1331193919355245,
          -0.22166706443988315,
          -0.035289158572509624,
          0.36415944756412366,
          -0.4610984229368496,
          0.038869502725205465,
          -0.02312618821601464,
          -0.036771236173552484,
          -0.1973004183361369,
          -0.24969378098383815,
          0.07412220335013685,
          -0.21864857945695287,
          0.12920791127754236,
          -0.060671782497214964,
          -0.1558755633977165,
          -0.07346765737232308,
          0.2178801205621266,
          -0.09767012207609208,
          0.18958853233428133,
          -0.04241027391109681,
          -0.03160757045942422,
          0.09611276591470762,
          0.18567561357639578,
          -0.41018056984298823
        ],
        [
          -0.062103974269103364,
          0.008156995792021754,
          0.2643828257777408,
          0.3490902197105229,
          0.3124099624583616,
          0.0044437374454889345,
          0.14335295312950339,
          0.39170953320840873,
          0.234432506324633,
          -0.4045181016512148,
          0.29621822556102967,
          -0.3294494756330935,
          -0.20813779873021684,
          -0.21686782788225875,
          -0.06450444648653501,
          0.21968856415727372,
          -0.05855470352307717,
          -0.20888039832157737,
          0.275809352732581,
          -0.05538350218894608,
          0.2707608326473207,
          0.007910297873247653,
          0.17396521527045045,
          0.1441043509316334,
          0.16539058926450345,
          0.22609357110869552,
          -0.02086862713964347,
          0.21221468910643698,
          0.19790740404363824,
          -0.05519392346711844,
          -0.12220809737909115,
          -0.10269695209481573,
          -0.01887232324124235,
          0.05936345608428039,
          -0.22284976006490215,
          -0.039183945474134056,
          0.16038874813778498,
          -0.06437200312071263,
          -0.13142064432014539,
          0.13240320376323853,
          0.09284448812625884,
          -0.11695757851084211,
          -0.051995699152260384,
          0.009899306292876928,
          0.12045930233934482,
          -0.02903460099620092,
          -0.07980819504731869,
          0.3724850219910338,
          0.33296869207277247,
          -0.015374167074564304,
          0.23777098805901184,
          -0.36089591203125987,
          0.09877837803178997,
          -0.035577071028908704,
          0.2809414339369857,
          0.02627199823707322,
          0.17935248167889542,
          0.023517815816304792,
          -0.062137240046027116
        ],
        [
          0.15054883008557818,
          0.012676075543977726,
          0.2755967841557213,
          -0.16396732300197336,
          0.1448156641686032,
          -0.009267349882192388,
          -0.3764576773860789,
          -0.16593858756287125,
          0.29930464045318544,
          0.00030800062560130997,
          -0.131538370508659,
          -0.11825076319794066,
          0.21024670239924967,
          0.2202490470607377,
          0.011312697232136388,
          0.008659734294597063,
          -0.15432220101451463,
          0.11841210990135582,
          -0.17389498513449742,
          0.0391834377933556,
          0.09584397131527307,
          -0.20972360556975617,
          0.018735100287961333,
          0.41850632590632275,
          -0.48665188399411397,
          0.051278537874202265,
          -0.08873705944155272,
          0.18925214295463907,
          0.3783706767530124,
          -0.2441501630875844,
          0.1768770430505212,
          0.07797496299947275,
          -0.15356401766995031,
          0.26381050384176596,
          0.12913461350682226,
          0.23864098375485993,
          0.26195571024124603,
          -0.2657803625511377,
          0.09129604169585538,
          -0.1256364768731398,
          0.08656430690714642,
          0.13946085941974828,
          -0.12571147354910264,
          -0.24450491965793061,
          0.15724262152198681,
          -0.2299063674335593,
          0.09427324909596535,
          0.22741630162486537,
          -0.28419263162682323,
          -0.15859702500993192,
          0.1543864166131772,
          0.29733253453031827,
          -0.09910113709103902,
          0.18134906819256102,
          0.2210165533020243,
          0.17090262402636663,
          0.11499440418623179,
          -0.07313791126463078,
          -0.33577101448263896
        ],
        [
          0.09536662323495186,
          -0.24777156510731652,
          0.41158867313001607,
          -0.18511344934208956,
          -0.09624312320659283,
          0.06377358078951377,
          -0.6304024833883478,
          0.13109157756462245,
          0.034816229613630484,
          0.051333333303127775,
          0.015638347280597268,
          0.17108901131498816,
          -0.24474388543041928,
          -0.10803606842971421,
          -0.3236178569309289,
          0.002057080346293579,
          -0.014944280828706063,
          -0.0948416203078352,
          0.02354277602047363,
          -0.2055849429643132,
          0.18598938971886458,
          0.04581903975991597,
          0.02853737993861441,
          0.024946967862655683,
          -0.09136887796865688,
          0.35130705364932346,
          -0.06541766027035517,
          -0.10287615480910847,
          0.05440757889851869,
          -0.20856963387882402,
          -0.1205773471770485,
          0.06761362944525198,
          -0.13567337041755956,
          -0.02147820616647304,
          -0.09571922833006528,
          0.0831273060897542,
          0.09553056465583747,
          -0.26692571660576947,
          0.34264214540208376,
          -0.17655632375040758,
          -0.21148957408791927,
          0.11917459069711937,
          -0.06805765482418828,
          0.043053516320468325,
          0.1677446926382359,
          0.08243899133780815,
          0.1407928528839958,
          0.372238758093191,
          0.10471742517063283,
          -0.13979741019219472,
          0.051543527279904716,
          -0.0522072793003153,
          -0.13628930774681722,
          -0.16535903682027328,
          -0.19481437555135972,
          0.22341862157130007,
          0.09418888785766492,
          -0.3383612937661846,
          -0.11823410959072382
        ],
        [
          0.27559530079924077,
          -0.14717880496341312,
          -0.13056966883164284,
          0.014898876111122124,
          -0.13188057675762885,
          0.2957891834256776,
          -0.2153960796134372,
          0.238529509300714,
          0.03775277603409382,
          0.08262020973486447,
          0.008358204643633429,
          0.011144346270719396,
          -0.25020137732331327,
          0.04167942550268552,
          -0.15259347405216994,
          -0.0035246053301307132,
          0.02063823575748849,
          -0.07266586289823711,
          0.05841767613229724,
          0.24478778322417802,
          0.05199072918437901,
          -0.00014357678839623618,
          0.11404316919060939,
          0.09509895644079366,
          0.053719880067631745,
          0.03281977842270259,
          0.08147919201372827,
          0.0769953338189166,
          -0.44655439894192134,
          -0.24246125461111503,
          -0.21854065558553504,
          -0.005783149485173999,
          0.14305977161803618,
          0.19312760470574103,
          0.1892255013634999,
          0.15004370496488673,
          -0.09239061796448936,
          -0.1345863765292633,
          -0.03986011202439314,
          0.10622918705561087,
          0.16081447423446646,
          -0.2595965178830875,
          0.32244422860364824,
          -0.1620416492032423,
          0.24786160331513926,
          0.1336475870214823,
          -0.12869521779003334,
          0.24092913085872625,
          0.28068788195882294,
          0.061770295445699695,
          0.16141233243611047,
          0.5372264234786823,
          0.28616633746535985,
          0.35858273482628433,
          0.14282281937694477,
          -0.1849105182836842,
          -0.07044087888273352,
          0.16022087111635222,
          0.38076123444825843
        ],
        [
          0.23164727194731874,
          -0.029115833144855427,
          0.20546620555835896,
          -0.7682348496505038,
          -0.07326637765311053,
          0.03615308933886105,
          0.024462765179624146,
          -0.18440651164534386,
          0.09655186060059617,
          0.0765693184023424,
          0.2918315771851072,
          0.3278452644578252,
          -0.29095419084678487,
          -0.10879254244790616,
          0.06185808339475726,
          -0.053606773662821884,
          -0.2648935141953697,
          -0.12637069884332586,
          -0.05467886088491734,
          0.14979641664063362,
          0.016883489407019284,
          -0.02770867265771556,
          0.14957803878267484,
          0.08758023909274038,
          -0.2073196941229854,
          0.1628667474671268,
          0.042520325375688804,
          0.4044996691235914,
          0.054423488934069786,
          -0.2749449426960774,
          0.5378685923164398,
          -0.054884020167505425,
          -0.5619696510461397,
          0.0667198968103062,
          0.023615554631765446,
          0.014235786431085293,
          0.2505318768618061,
          -0.21501256690255832,
          -0.1313859954592082,
          0.16682818991081425,
          -0.034564532169088454,
          -0.25781507185626323,
          0.09621030887355767,
          0.06715174352897357,
          0.051856790980843906,
          -0.2261458184840698,
          -0.1191663972963335,
          0.07913603886722877,
          -0.197390754307256,
          -0.002633274732784032,
          0.16692139250581212,
          0.2944098845232874,
          -0.017341409775717166,
          -0.2529134610719657,
          0.11009700142472505,
          -0.1726446893608372,
          0.20949303226404872,
          -0.20234489020670318,
          0.2557274590758448
        ],
        [
          -0.3750283839706225,
          -0.16265659526567006,
          -0.4677684666922134,
          0.2757857113535486,
          -0.08365374845790961,
          -0.47117815482011277,
          -0.5447079471411203,
          0.24177641468282085,
          -0.3006635339121791,
          0.16502673267148354,
          0.2424131658039673,
          -0.2929547434011327,
          0.36875742721584304,
          0.0830767289607437,
          -0.06136778866262783,
          -0.035454044420352396,
          -0.0032605793660728678,
          0.13571043828009702,
          0.1827021881345482,
          0.08414662667013863,
          0.18431995401918416,
          0.005168534412268405,
          -0.09392654068358719,
          -0.12721140814802456,
          0.3066912744611224,
          0.14285337114437566,
          0.14748240260436277,
          0.18748127450897903,
          0.2513076531757913,
          0.195255481448765,
          -0.12272692156940722,
          -0.14441652946358083,
          -0.2998025312142791,
          -0.31259567337743993,
          0.17875992926001386,
          0.07989475438282963,
          0.23187264207545788,
          0.21442537440439755,
          0.10781973192230687,
          -0.11945512777198666,
          0.13158587277089023,
          -0.016200920279327645,
          0.3601293499161831,
          -0.22635476335615626,
          -0.2627968288642992,
          0.0904319684299846,
          0.09759520091251127,
          0.01746889030616662,
          -0.03804226321892632,
          0.024633278192736495,
          -0.024905773114661422,
          -0.09497792268200818,
          -0.16839100087010786,
          -0.053750617205207504,
          -0.15001841390216442,
          0.005638646915207304,
          0.04324954413017072,
          0.04631164860683632,
          0.1002127151562722
        ],
        [
          0.23147882049005866,
          -0.21156598347706623,
          0.08401643349994237,
          -0.1332375450370922,
          -0.07551424909909457,
          0.04060609243864162,
          0.03607205356919276,
          -0.09378031804897125,
          -0.12842402014257065,
          0.19832585328329624,
          -0.08421327391130759,
          0.18989014902873924,
          0.16394323112265616,
          0.07018866550220393,
          0.18808038372401006,
          0.03525811789226756,
          0.13660769977034973,
          -0.22190161550628643,
          -0.17250696346303324,
          -0.13456774359073456,
          -0.38329515964337624,
          -0.042851171833691054,
          0.1433516527935739,
          -0.08056845178607028,
          -0.16919269144506333,
          -0.13947418227153524,
          -0.18036127740198477,
          -0.16667527803725019,
          0.12042816990540726,
          -0.0010728004233457264,
          0.36668225938204413,
          0.002930402757541155,
          -0.03747702116359022,
          0.30983325907916226,
          0.10732791365849469,
          0.2498159690116345,
          0.20432888246983383,
          -0.3127583664616655,
          -0.21211399950971957,
          0.13991123204687483,
          -0.061506318620536626,
          0.02066063415082912,
          -0.04857420834430774,
          -0.1588763372071252,
          0.047988649572051324,
          -0.19501748061456778,
          -0.0756121124265653,
          -0.19762100897334162,
          0.03353342512074342,
          -0.2671340943413275,
          0.012910017477278423,
          -0.15211947650846414,
          0.021744129526646054,
          -0.1976131038722137,
          -0.3129572845435231,
          -0.11738438483083115,
          0.22523056428407592,
          -0.12774182035191783,
          -0.426401980913247
        ],
        [
          0.42133756170274594,
          0.20874856759136357,
          0.14201281492235143,
          0.1281782700359106,
          0.27203738952722906,
          -0.15039415271528894,
          -0.011989963990990102,
          -0.38023719351030966,
          0.09735325035115176,
          -0.3481913085408712,
          -0.027667783222651024,
          -0.26010188970352305,
          0.12588112440779947,
          0.007777425799019449,
          -0.1424541880529566,
          0.1793297965293244,
          0.06969839419875627,
          -0.10001035596657382,
          -0.00734386335022591,
          0.2487188644174144,
          0.4062873703574218,
          -0.1437798718280964,
          -0.21635329432454498,
          -0.0015864197174473762,
          0.0325318158321051,
          0.3584451621916489,
          -0.18521658936092195,
          0.04326805368475583,
          0.06556298344014244,
          0.026981558689083113,
          -0.05290428958403122,
          -0.26371947151294806,
          0.07462243430981431,
          0.05350092810568078,
          0.15767429176195136,
          -0.34731007129994884,
          0.23019618826086177,
          0.04459726314550041,
          0.18936315863205663,
          0.17553950555701403,
          0.21964098699697285,
          0.1550145832800348,
          -0.22238639211456465,
          0.19319361906454788,
          0.2699722430014078,
          0.17278076881091173,
          -0.11286188613976991,
          0.09052437162099988,
          -0.1473048405833934,
          -0.10571674647347996,
          0.059573145212473866,
          -0.12127968809092408,
          0.11474809531685524,
          -0.045363003575773206,
          0.2594630750489614,
          0.15063367040355438,
          0.19148242714584643,
          -0.035691399559859976,
          -0.25609588362205
        ],
        [
          0.35288928349647736,
          0.2667254741001433,
          0.3498616015627785,
          0.26460656759341794,
          0.0293163866298961,
          -0.30232193126167933,
          -0.052045655005340384,
          0.11482537454337585,
          -0.1123126152543742,
          -0.34122870076361855,
          -0.12846615291853392,
          -0.032848791466414354,
          0.1369833953902974,
          -0.5461555607693266,
          -0.006596399090734912,
          0.11366109965254607,
          -0.09481024176602634,
          -0.048349058138050516,
          -0.11200955894865332,
          -0.06629530042387695,
          0.15903936343962993,
          0.10767167970142821,
          -0.17494861074687698,
          0.11514407210159136,
          -0.19940799766676312,
          -0.1228842111392192,
          0.0035070258602866475,
          -0.38181878247628004,
          0.009711269011471218,
          0.1513719573222725,
          -0.3439155600306602,
          0.04294334332922304,
          0.01343786708105392,
          -0.3519637601865235,
          0.4354233109422665,
          0.06546524474926199,
          0.14967232189388455,
          -0.15270867056167253,
          -0.11164545344886852,
          -0.006627049443309388,
          0.0326007689915749,
          -0.3628468597690436,
          0.27968190192015013,
          0.43740283028327775,
          0.08392575822014024,
          0.15993953463447974,
          -0.3509098424858904,
          -0.1954386849915845,
          0.006874572784356377,
          0.25561825937248417,
          -0.06288800385467458,
          -0.2198762608879735,
          -0.08039548831319267,
          0.05758787228891267,
          0.04894115297135789,
          0.014737542097017806,
          -0.05516907270031678,
          -0.006171430485277662,
          -0.012593313067466588
        ],
        [
          -0.02813639233885206,
          0.02374765535536267,
          -0.2055954670251566,
          -0.08343640962626474,
          0.09683660470652777,
          -0.12829930474583628,
          -0.6314509552233788,
          0.04394070733506337,
          -0.06730504767809181,
          0.062167643781142916,
          0.05172096789389651,
          0.09028771496265847,
          -0.12154827268789681,
          0.25283948815649737,
          -0.0562334970542672,
          -0.05485274262137542,
          0.28075168744575285,
          0.0109275495467527,
          0.03452776372785688,
          0.021100709850358768,
          0.10699483995147262,
          0.29439340747629644,
          -0.18601731249235753,
          -0.10755139598317594,
          -0.028161492964420057,
          -0.3244669248921405,
          0.034799273593650995,
          -0.036612318492521036,
          -0.026409686208012626,
          0.060180516084263426,
          -0.01999187082898141,
          0.34219786479237846,
          0.18195882475649233,
          0.023681773399374207,
          -0.1550229183054993,
          -0.04013800106984436,
          0.12894510174250087,
          0.09482419229485414,
          0.12088172113946316,
          -0.1635904310745973,
          -0.040405962342480985,
          0.6897299964047714,
          0.21914076945236988,
          0.036364254541855,
          0.18392962133233023,
          0.21345334763308463,
          0.07941025330622545,
          -0.04156200712582667,
          0.04977907901860167,
          -0.0373014582236609,
          -0.1740328120722431,
          -0.12684941443526646,
          -0.12826121360767923,
          -0.06629191485988889,
          0.1312483796239464,
          0.3159505069052859,
          -0.13082045567784834,
          -0.012877620655738041,
          0.13063868003167067
        ],
        [
          0.2792526908324148,
          0.11826995463065634,
          0.0342398085739303,
          0.0754330249926067,
          -0.18794667889507374,
          -0.10648109627645505,
          0.4867014398982356,
          0.09462470365051827,
          -0.07764196949347915,
          -0.22722277886100273,
          -0.1673043041834834,
          -0.05912880248815233,
          0.16334062349204445,
          0.0030026026666480094,
          0.11282647007299815,
          -0.29473910165977024,
          0.10974384399740301,
          -0.006734039348331694,
          -0.14798907084976176,
          -0.17857409556856635,
          -0.04727685828768431,
          0.3648366771363919,
          0.0443868439736032,
          0.18928049262130264,
          -0.08424654036565284,
          0.15427856509784907,
          -0.2534145562787871,
          0.08988619211536449,
          0.09479185265787797,
          0.11813921929569574,
          -0.08282601685024918,
          0.06225114554333187,
          -0.14119757677873554,
          -0.1315506724307058,
          0.010006807341748,
          -0.0017552344855690232,
          0.10687304333510761,
          0.059673474555433315,
          -0.061539321400799166,
          -0.3711768354400769,
          0.17640053805820766,
          -0.16028202414952722,
          0.03157477474714209,
          -0.20434543988703835,
          0.01488754313970006,
          -0.12069841131783333,
          0.189284265017777,
          -0.2607018488158472,
          -0.10104718962526514,
          -0.005671619653892416,
          -0.12179235688473546,
          -0.14872860027954693,
          -0.02930554066410622,
          0.20753529896833037,
          -0.040647936657695345,
          -0.36229480360804467,
          0.42584487921335307,
          -0.17725732120085316,
          0.0995198182162552
        ],
        [
          -0.3009998173518832,
          -0.1992502944990857,
          0.09092992074059397,
          0.5174791623061996,
          -0.18693902805862433,
          -0.11943520986872797,
          -0.21555046533180147,
          0.13887092898796616,
          0.5358336028041515,
          -0.02153276096572821,
          -0.00036811164598113985,
          0.07962710513675472,
          -0.21381199724808808,
          0.31728330089717405,
          -0.050655493801182436,
          0.05307558227694073,
          0.05793847269338486,
          -0.22385780557735663,
          -0.09287452053059744,
          -0.04451310407963166,
          0.1038750307748233,
          0.11087760133950963,
          -0.00017470598906557452,
          -0.27320515120040995,
          0.11371583776769198,
          0.12612455248619783,
          0.09810236303543579,
          -0.2153310745005808,
          -0.13647618379919613,
          0.22128771246586332,
          0.33441844004723403,
          0.07715782670568021,
          0.1709673995735612,
          -0.43697769690441646,
          -0.16568329177933203,
          -0.16688767885337463,
          0.012582403948651453,
          0.027548442981254143,
          0.37051433110675924,
          0.022049962340883224,
          0.023722026434292373,
          -0.21808344502574328,
          0.34474024020939487,
          0.40662074630557704,
          -0.13668485753815357,
          0.06870452070712134,
          -0.13281314241679057,
          0.06416193649855037,
          0.06597215555028604,
          0.029016213257242594,
          0.05739319521673247,
          -0.21361278501916894,
          -0.10653898889638808,
          0.3024572576826583,
          -0.08430267741956689,
          -0.1614817490508076,
          -0.240994759883491,
          -0.0024315824595140087,
          0.3392139559584014
        ],
        [
          -0.3164480361786121,
          0.010754228227186613,
          0.1419645392818402,
          -0.07150156273218972,
          0.09646392040085897,
          0.011236191813238053,
          -0.040538238848731104,
          -0.039118518019115214,
          0.07965150414957532,
          0.268156023006145,
          0.013401135389191602,
          -0.22171882899841347,
          0.15472665120443532,
          0.25798029577008885,
          -0.08704145911451733,
          -0.0837561854618873,
          0.24313119273354758,
          -0.16883832505200375,
          0.09801282801311732,
          0.15313410784237486,
          0.038519025982624196,
          -0.03790617711465577,
          -0.005982108673484811,
          0.30853298385108135,
          -0.14536678769983916,
          -0.32912538038080114,
          -0.15549797964686612,
          -0.04989421975248207,
          -0.4259749644389017,
          -0.20553102437652662,
          0.21480247021575188,
          -0.08637265619587284,
          -0.09891257517431197,
          0.35633023584880996,
          0.02318953012692708,
          0.09558127600999924,
          0.2552242646716607,
          0.3291874114024424,
          0.11056994919097538,
          0.11371236571783158,
          0.11256614101991813,
          0.2943354507699414,
          -0.05518510230907497,
          -0.07205720762602845,
          -0.06395878714368312,
          0.541578454152405,
          0.08055737801490839,
          -0.24384635384119524,
          -0.004573851350095028,
          0.13227734257516827,
          -0.20859413476626276,
          0.20426667504269114,
          -0.1428561023693009,
          0.12698551591597204,
          0.08396979498316175,
          0.15452654690758444,
          0.13035192476587457,
          -0.25693667337118575,
          0.3237506406016366
        ],
        [
          0.09465414214700063,
          -0.23019719817975012,
          0.3526412181404935,
          -0.19641398518251438,
          -0.14766890384922274,
          -0.3612000277652162,
          -0.234566547361648,
          -0.24065751990934714,
          -0.1271768629472532,
          -0.2187735812714906,
          -0.11824129279819094,
          0.08788039079146141,
          -0.01344293774794174,
          0.0602744957889215,
          -0.05659536383013158,
          -0.03334651185263325,
          -0.10315603391104707,
          0.017853733040273746,
          0.0972257676616434,
          -0.09377628995883994,
          -0.2568302642167446,
          0.0847743625390001,
          -0.042956032342538836,
          0.22714490556179825,
          -0.011596694856062852,
          -0.14514022268146293,
          -0.41186841108046335,
          -0.22683900848402047,
          0.1265469530026141,
          0.006454732847336469,
          0.00980474243448946,
          -0.09238468673949914,
          0.4519475984384529,
          0.4873888405746919,
          0.25245165133092795,
          0.031442559143195624,
          -0.1790070977677086,
          -0.36504899758854553,
          0.020713066408209482,
          0.22825682540538117,
          -0.15707666521101674,
          -0.13601655768186477,
          -0.43514807881420575,
          -0.17947791572235583,
          -0.08405876851021987,
          0.2532769707830127,
          -0.32677699964461515,
          0.011121771552549444,
          -0.028516220576345806,
          -0.16040080599881615,
          0.16334300946521726,
          0.31907707772192717,
          -0.08279500380841323,
          -0.1348539352802399,
          0.19375022919193266,
          0.0008275155105222115,
          0.15756800289340986,
          0.1399895439348665,
          -0.009034642137904269
        ],
        [
          -0.0410922883558615,
          0.2304674553410525,
          0.4058237517301813,
          -0.1421718308079269,
          0.07337384459820619,
          -0.07496068044270067,
          -0.0846567559947166,
          0.07458661079367,
          0.01813473708505566,
          0.005793840503120801,
          -0.2129820016181748,
          0.10977819124926178,
          -0.013296981897129674,
          0.05373807799574497,
          0.001471178582551145,
          0.12388908759201539,
          0.1408324967020593,
          -0.015811036470296615,
          0.16937771796760032,
          0.2137615924017074,
          -0.04866722942741925,
          0.32318797005272504,
          -0.15076305177277421,
          -0.05312700423047548,
          0.25983180287320556,
          -0.12120764509965214,
          0.005313915780050457,
          -0.2420180761878275,
          0.11176268784184583,
          0.35562437563724114,
          -0.21620302646053052,
          -0.08528381838377286,
          -0.08490393470243304,
          0.2066530023125079,
          0.17030475192468209,
          -0.00022801291564750146,
          -0.20261276798171635,
          -0.12448115843586055,
          -0.4047597465104223,
          -0.007163877443227247,
          0.17417240959223665,
          0.4672764732632567,
          -0.2387173786291015,
          0.13891727838993403,
          0.06730255954023168,
          0.033532261540486455,
          0.05539110294572992,
          0.1790985585388661,
          0.21051195944046203,
          -0.010611146039102265,
          -0.03138621834006976,
          -0.08028796152100466,
          0.299678014604042,
          0.09453193971003969,
          -0.14790857187286258,
          -0.10485177364149124,
          -0.043736091544138746,
          -0.09958821294341744,
          -0.18729382291138352
        ],
        [
          -0.2636945764254865,
          0.21516032304903274,
          0.0714319057479332,
          0.09507121128856631,
          0.18244299950215784,
          -0.04915391810654025,
          -0.2776783451470478,
          0.09214379336755847,
          -0.13697565942779547,
          0.1681481731252472,
          0.09527853760474576,
          -0.2124669929363347,
          -0.4540022535508393,
          -0.021978567313158726,
          -0.23505507286825802,
          0.26249266407314836,
          0.15082136014336933,
          -0.013949030588777028,
          0.20077051274131158,
          0.2770344961302423,
          0.17976857803779842,
          0.13742620153811658,
          -0.40785341306488104,
          -0.13099138915153952,
          -0.08177715200039055,
          0.18354041951483036,
          -0.2024438921946524,
          0.005809396283837822,
          -0.22250724053748505,
          -0.024495703305290016,
          0.06701687742471325,
          0.0562088832100472,
          -0.14801317698434668,
          0.15095041843203963,
          -0.02671423217177289,
          0.2715908724073958,
          0.016094002030100283,
          0.2507967686027284,
          0.1325406414732956,
          0.027356957829279164,
          -0.2062838686587888,
          -0.11849736933945869,
          0.14945987065137528,
          0.30842565168009617,
          0.007468302599483994,
          -0.22343068953993434,
          0.09421542056498589,
          0.2515023453079709,
          -0.15824596385132256,
          -0.4080443781454013,
          0.09685841315810838,
          0.4118530797742374,
          -0.034515858239222055,
          -0.15730792785667902,
          -0.0756256047062418,
          -0.07444191252720428,
          0.09530463801400675,
          -0.02026293236266115,
          -0.24746471545979
        ],
        [
          0.2009111677792633,
          -0.16354337732674545,
          -0.09006015469890685,
          -0.0764587851523051,
          -0.0676709955958788,
          -0.29537008674567433,
          0.4799333797773821,
          -0.03721507313658851,
          -0.27032386927872304,
          -0.2949049264549404,
          0.0606387073868043,
          0.11019581865393169,
          0.1923799515146506,
          -0.20469707026531433,
          -0.03640868793667688,
          0.005760813678961901,
          0.10455657432453946,
          -0.11452318986151566,
          0.11298212695328835,
          0.1866797184513545,
          0.07038543916383938,
          -0.07315089744439841,
          -0.1738935980681699,
          0.415739215896071,
          0.11606517335925756,
          -0.40287345857747514,
          -0.2545680106784168,
          -0.018403787452170844,
          0.1383542775820345,
          -0.07934159188181587,
          -0.3431744911034828,
          0.048235391024770584,
          -0.17362618528108942,
          -0.18852384533033145,
          -0.09526063576629622,
          -0.05209808797563149,
          0.09237290333170205,
          0.0006516278791993638,
          -0.044924100632300464,
          -0.16857519533620607,
          -0.03411621857144289,
          -0.20874773014508072,
          -0.002440002464556991,
          -0.13426938081114956,
          -0.014945176204472672,
          0.021533149295472825,
          -0.3938750736816391,
          0.08225565255253753,
          0.12277246503679758,
          -0.0835371815246928,
          -0.18240083664700862,
          -0.16970523833137643,
          0.14024547526333972,
          0.16603547676462732,
          -0.21269962805219844,
          0.11054752882959759,
          -0.01226837149633691,
          0.04966220270396595,
          -0.2036866279448599
        ],
        [
          -0.5359410210305291,
          -0.08255541096956993,
          0.09985542881415672,
          0.39239888206782314,
          0.11296773740816873,
          0.2138656440729936,
          0.007421305709110464,
          0.23099782831962937,
          -0.07011032086910068,
          -0.20266814787301,
          0.18746909519915717,
          -0.03732253760924706,
          -0.12528240699514204,
          0.2972904298283554,
          0.08096152130146099,
          -0.047609736409582284,
          -0.29111877007156645,
          0.22814907430966247,
          -0.2607489059160865,
          -0.3467632042145403,
          -0.14746524449574555,
          -0.22394801015608115,
          0.12375037935656599,
          -0.2698186952669362,
          0.16323249556657307,
          0.19065618269698023,
          0.12918083314229845,
          -0.033386122692135804,
          -0.3648030165408703,
          0.5521693647298601,
          -0.22589469097778628,
          -0.061774049294311316,
          0.11187939123364088,
          0.17305699589031937,
          -0.28707206996175344,
          -0.1540262700291142,
          -0.16726396668052165,
          0.07982995632406152,
          0.008873578621396875,
          -0.34234663041243873,
          -0.14031074833457124,
          0.12834175977531598,
          -0.3483450290274626,
          -0.19321446020047478,
          0.23726062261990605,
          -0.3899002944891867,
          0.41219221348394575,
          0.05424514912093638,
          -0.23640053355310334,
          -0.12037508340747277,
          -0.02575223108245305,
          0.08863149605480587,
          -0.20500323383538296,
          -0.16902171290147855,
          0.04844344597084252,
          0.018999993736600364,
          0.0974747165780705,
          -0.40471407614175925,
          0.30720907208854703
        ],
        [
          0.2351421907237425,
          0.22945415287935178,
          0.28643861876208304,
          -0.07168325905344612,
          -0.09494505644695844,
          0.1416628378875398,
          0.4353821641332538,
          -0.11283422129527064,
          0.06538884919675392,
          -0.016343112341038944,
          0.021494805309935555,
          -0.0680595024763722,
          -0.33910729450274835,
          0.2736414946445718,
          -0.12013879262786395,
          0.15029266144257206,
          -0.14199435055286821,
          0.12888859882986203,
          -0.35223630553293417,
          0.15819853101709572,
          -0.14678658625004212,
          -0.05998737004606502,
          0.19257646268433176,
          0.12805449074352604,
          -0.1261367889727779,
          0.04681143723092893,
          0.04808619629672874,
          0.07883247677678117,
          0.09522096886567698,
          0.04577757135615366,
          -0.031984316719900666,
          -0.06400304210038882,
          -0.19687331344671757,
          -0.5074395423178275,
          -0.1648494829434864,
          -0.19107428399301346,
          -0.2085077546584862,
          0.10463228633379056,
          -0.279710276104392,
          0.11403753405501212,
          -0.18054711137333052,
          -0.2776995510880958,
          -0.0891266562318699,
          0.04810542967842596,
          -0.16749612417652215,
          -0.24713495043225447,
          0.31587637596586093,
          -0.142588451205994,
          -0.1296855711334184,
          0.17723384750428522,
          0.07697977472958172,
          0.021074082118878845,
          0.007829408833784877,
          -0.2915371726073849,
          -0.09927590640798589,
          -0.14128806123641782,
          -0.10892572498784035,
          0.11344077069557763,
          0.1489405137249599
        ],
        [
          -0.021767751862161313,
          -0.03647645273147343,
          -0.050890425121681335,
          -0.05769083709018119,
          0.02109445397290037,
          -0.02435969693895073,
          0.6488985906917022,
          -0.04157257346300757,
          -0.13424108638459886,
          -0.43110301606288765,
          0.23076292829071882,
          0.05220126656238095,
          0.13408398088354007,
          0.1692735068519344,
          -0.16158639058492677,
          0.22667220783425815,
          0.03113070986163637,
          -0.13245082434060954,
          0.060148741668875835,
          -0.017709955033246867,
          -0.05367111059559665,
          -0.1979970720842465,
          0.02825429693565785,
          -0.06683897659865823,
          -0.35395582317497465,
          -0.16465970151152365,
          0.0985749241404362,
          0.057610430480054514,
          -0.15938649156879142,
          0.38192288041564837,
          0.0598997100397888,
          -0.12648368283701814,
          -0.24496087869036262,
          -0.4785716285601193,
          0.09676728541540164,
          0.35905475617007426,
          -0.026788224360434956,
          0.1503501859775124,
          0.048716820336791894,
          0.12384937216251315,
          0.1331559688425444,
          -0.08423640328242049,
          -0.08195971043355868,
          -0.06543643526062476,
          0.4153897642702894,
          0.43030153168217894,
          0.0072687038395513074,
          -0.33181901518741247,
          -0.1506247905664346,
          -0.03296893485217674,
          0.4183411893996295,
          -0.31990395711752634,
          0.10671496927847778,
          -0.019303405926158868,
          0.16438285407915004,
          -0.29565334541510685,
          -0.08517660076175472,
          0.11958918401505553,
          -0.05891634051834457
        ],
        [
          -0.1235188385551788,
          -0.19847314038022737,
          -0.14597160031092415,
          -0.24384888967812218,
          0.03853773544985048,
          -0.12310110177274335,
          -0.315471886797703,
          -0.25922768195452384,
          0.18878236485431787,
          -0.1353750163887993,
          0.09054360697917775,
          0.16576009137579673,
          -0.012792929481887958,
          0.10957829158367585,
          -0.36626970583219925,
          0.021716896335759878,
          0.07400616920460526,
          0.19441663981769525,
          -0.14573849635970357,
          -0.08094860455483295,
          -0.12059580530134248,
          0.07212572145755046,
          -0.04575005701652565,
          0.21401572007491895,
          0.020044559146299868,
          0.1436439647582199,
          -0.003832730484111667,
          0.04340244788210208,
          -0.3235624775715575,
          -0.046330492899650806,
          0.4172501687915754,
          -0.3860042672400783,
          0.13688711202324072,
          -0.19820225814367942,
          -0.1463609699964601,
          -0.1321875182071189,
          0.10305140161608442,
          0.2100249583442493,
          0.10566313212876016,
          -0.07116903656766155,
          -0.08604417200598323,
          -0.1536147373882028,
          0.03383778561137019,
          0.05357870326843272,
          0.34003014685178934,
          0.1843157098548935,
          0.18763762074803614,
          0.12993689318368565,
          -0.09121753434177467,
          -0.14340925051903272,
          -0.1029863759077463,
          0.17779565254884647,
          0.3407256969022007,
          -0.21014360432607584,
          -0.008367749471369848,
          -0.14356159686509543,
          0.063740385448962,
          0.13239534884010096,
          -0.2788708172020531
        ],
        [
          -0.37205605794199004,
          0.007820058584507609,
          0.004596034330374151,
          0.1734748093608932,
          -0.16106430706398567,
          -0.24783722585898507,
          -0.005861821952448188,
          -0.12989159799804378,
          -0.08498792270859538,
          0.0539104411432347,
          0.08887619571889341,
          -0.28549979036352685,
          0.2001598192524352,
          0.1448621880486013,
          0.3121615720593872,
          0.16535941622836658,
          0.2868134016898023,
          -0.08773664168876691,
          -0.017720203464948875,
          -0.3323684703548818,
          0.01389414050514459,
          0.26441368292198403,
          0.21934606553593897,
          -0.08805493244046543,
          0.23646062805205675,
          -0.15214219535206394,
          0.2655528855679971,
          0.014677499081597836,
          0.0756056680468316,
          0.18962501348751545,
          0.08507749438071875,
          0.16916056054222478,
          0.01140557119652202,
          -0.24344437820448275,
          -0.12024768538997992,
          -0.13461582447063436,
          -0.18039222483858552,
          0.0908963630439263,
          -0.06094749551206432,
          0.0438267953813713,
          -0.17587364266580938,
          -0.13776447744975875,
          -0.08470413394335871,
          0.06223131911708138,
          -0.18205379397536495,
          -0.13511838946424853,
          -0.20709358549098109,
          0.023951925722764486,
          -0.07948130300095574,
          -0.04864160623943576,
          0.28633027101596276,
          -0.5335115667600299,
          0.16928941936681635,
          -0.0383720053190649,
          0.13722001190018568,
          -0.09983105628180676,
          -0.12232678654671901,
          -0.3050147110911634,
          -0.44721792275466105
        ],
        [
          0.10302979677450225,
          -0.3172458230476015,
          -0.10975609444175848,
          0.09050670190854454,
          0.30486212580570077,
          -0.19773885788666332,
          0.24080224271805883,
          -0.24850737009441456,
          0.04230606188592983,
          -0.2382155038220027,
          0.0979092381127697,
          0.16728185790261152,
          0.03505170944457881,
          -0.0803429789266884,
          -0.3205661956267499,
          -0.10313658378656479,
          -0.008805950954866597,
          0.2336889051317317,
          0.27220702650080186,
          0.08248790919233377,
          0.0002937378677268504,
          0.015239792780362221,
          -0.18291581625498038,
          0.017668056106282175,
          -0.028527744610466647,
          -0.007376417779325699,
          0.08699246901347277,
          0.19838167786968935,
          0.06257875446352532,
          -0.49193900256359097,
          0.3695730907237548,
          0.07498486947992149,
          -0.26754423075074196,
          0.21360478944261038,
          -0.018225421373073546,
          0.08848468193719725,
          0.11779395821820007,
          0.1845084022563654,
          0.34223938302698403,
          0.07531653584030946,
          -0.10242976926860996,
          -0.1105346280716685,
          0.1616388015738499,
          -0.07517774146827076,
          -0.0012669433008777621,
          0.062421744821185704,
          -0.2367948388611083,
          0.34538999379751795,
          -0.13533574924028352,
          0.11508869355735257,
          0.10465762006016334,
          0.11944672717379139,
          0.23285379104087922,
          0.252098974632385,
          0.1095570606340531,
          -0.14898417473552616,
          0.07333440258447423,
          -0.04914680611717032,
          -0.08394373890000836
        ],
        [
          -0.08978684677506664,
          -0.15474706251737852,
          0.03606983118948847,
          0.32047671970470676,
          0.10992783874380077,
          -0.38262866809694585,
          -0.08974860911946898,
          0.21392977032681776,
          0.16194791891937338,
          0.025879377125465355,
          0.07709811821069322,
          0.05776887801556331,
          -0.34982218699751366,
          0.028882059931047845,
          -0.2241588712414968,
          -0.013250554096159163,
          0.29894943972565036,
          -0.03296197426451998,
          0.0574830785628176,
          0.06924385554629517,
          -0.28247115306938003,
          0.13538862686672332,
          -0.03209407249505098,
          -0.5620517784802668,
          0.1221643197443872,
          -0.16356140235692485,
          0.27953067913985236,
          -0.045492379879276276,
          0.05227605311317483,
          0.14132036296962575,
          0.23382351156945702,
          0.16927474409654236,
          0.13059932519444442,
          0.18363916094282545,
          -0.08217457233909414,
          -0.03823888115934015,
          -0.5474250652560259,
          -0.327411953547018,
          0.2720414165247392,
          0.10935823851469896,
          0.0037160190587906283,
          -0.041373863297519374,
          0.17972025993475604,
          0.01781192821745871,
          -0.5174026110233726,
          0.31183645891889633,
          -0.03045280012797852,
          -0.40837253915434923,
          0.06727761941332984,
          0.34378665086232,
          -0.15780037800476415,
          0.020514371707446744,
          0.17179418978296776,
          0.0718850930654955,
          -0.0057010533194426765,
          0.029599234381503258,
          -0.24968032515725916,
          0.08660530181273925,
          0.04964280367126886
        ],
        [
          0.48983929474653376,
          -0.05964216418957166,
          -0.0574628206378876,
          -0.24837283524852583,
          -0.20211825409038878,
          0.4896648911934947,
          -0.5217063269499191,
          -0.4032090197124775,
          0.0841360124777249,
          -0.3374717759708485,
          0.07768442104752767,
          -0.2693814368450865,
          0.09239285594989534,
          0.2938447683463328,
          -0.27286284088892027,
          0.045307529709790476,
          -0.06074118074550846,
          0.11397688726492661,
          -0.046249134368598836,
          -0.07623629009971777,
          0.12946900008055837,
          0.20140183596195663,
          -0.12941398837823864,
          -0.16800496271918128,
          -0.13102721754033542,
          -0.15706206977178477,
          -0.04083405058602263,
          0.24110190258709943,
          0.2728945871589746,
          0.09386652363055262,
          0.07132482647715715,
          -0.03417371698018637,
          -0.21398072410023747,
          0.2570229663037249,
          0.46953257588577363,
          -0.12257234072032684,
          0.09816142516498597,
          -0.0415787851453076,
          -0.019189375376004958,
          -0.18188651761506658,
          0.11055263723146969,
          0.03171697216274094,
          0.12196983964304595,
          -0.03581858326942482,
          0.13717190356683817,
          0.08832555181381704,
          0.08154390474991599,
          0.1463509489676743,
          0.07939891271281731,
          0.5980403132901102,
          -0.1996738408184736,
          -0.3990117252672057,
          0.10923620366815592,
          -0.13928555084126376,
          -0.11805379326699404,
          -0.07938800118154159,
          0.10538397060202549,
          0.05020092535315082,
          -0.25100586781006423
        ],
        [
          -0.17812932066548318,
          0.12974291416155997,
          -0.03977992918947829,
          0.26594516173897503,
          0.12990311978421348,
          0.008028753686377682,
          -0.05309815624634909,
          0.10955602537503148,
          0.2602162210534524,
          0.07324933084720829,
          0.3737412342037591,
          0.1900686026408695,
          0.16090295057626858,
          0.3606718623643823,
          0.11716094584166305,
          -0.05910477540178033,
          -0.3602318469462003,
          -0.2979932121641367,
          0.16344317328657976,
          0.2049914870616903,
          0.05337325126317351,
          0.259357949250596,
          -0.11733154359366028,
          -0.3350110062097674,
          -0.23185391105071004,
          -0.10536094236413779,
          0.19293727200557348,
          -0.019030610930296912,
          0.2180548445601206,
          0.2814675724993874,
          0.08176428873509224,
          0.14625032355397494,
          0.22514170940508477,
          0.015035611373625081,
          -0.10479385448125947,
          -0.3781565781453393,
          -0.0942422545166949,
          0.08008947268347422,
          0.11749728716828564,
          0.2096483286321045,
          0.1299529562226035,
          -0.17069528113814578,
          -0.0005942834677710846,
          -0.14426391310448797,
          0.15344452704126818,
          0.08785527412161866,
          0.04062593796967004,
          0.03591278582971269,
          0.018792417397829473,
          0.04421606151336684,
          -0.1691304882177859,
          -0.22990299803365558,
          -0.07965662270245123,
          0.17762743597842529,
          -0.0023911209956287297,
          -0.04215863329710786,
          0.28245925752939083,
          0.09942414953307954,
          0.20990368648925367
        ],
        [
          0.02095160354030027,
          0.2100247722144882,
          -0.042909244813724066,
          0.12881977270033979,
          -0.2103523595629408,
          -0.11607579453874799,
          0.5437495402662063,
          0.02907728829436844,
          -0.08879946407893344,
          -0.048437704077091304,
          -0.11704025221524962,
          -0.026934855569079767,
          0.19891327483243507,
          -0.16799222837209393,
          0.1381261370559151,
          -0.07550874823344025,
          0.051385634481414456,
          -0.03888176499761016,
          0.12860678892107777,
          0.2579906610376502,
          -0.189177552980045,
          0.022311083251724678,
          -0.3119317444829523,
          0.15091270329329173,
          0.014449818413309461,
          0.28722552541474805,
          -0.08421608249150592,
          -0.2610613199428739,
          0.48661836778349565,
          0.12307579102709919,
          0.11889376962229417,
          0.1148853029565179,
          -0.31909538662666814,
          0.09892479918323271,
          -0.08915196331465479,
          -0.18216004502173594,
          -0.004228985933552387,
          -0.04797733960837542,
          -0.03883107848304658,
          0.20969178188216492,
          0.06641496386558127,
          -0.042146348586404335,
          0.11146316755416934,
          -0.013325920017109947,
          0.2802602839826781,
          -0.10969105824071732,
          0.0012932484680549443,
          0.053542316861849494,
          -0.017178834610986862,
          0.13890051397362158,
          -0.1854456696297467,
          0.25646371618105407,
          -0.21386385414873232,
          -0.0009788671790992912,
          -0.11322896519781442,
          -0.06080205077968238,
          -0.36127064925689445,
          0.013488676015418116,
          -0.36443980442545215
        ],
        [
          0.21481102234599764,
          0.23680888266066666,
          0.07337264080199163,
          0.0992482489204118,
          -0.37766957018637937,
          -0.028643792713431333,
          0.3480077881082309,
          0.01514152847881053,
          -0.16047928196194813,
          0.13794646887192974,
          -0.010382301129117743,
          -0.06482562302063603,
          0.30500682680813695,
          0.14494504756866575,
          -0.09515068232809838,
          -0.2450546698510936,
          0.0050724950520136675,
          0.05874361443694609,
          0.032690221991660516,
          -0.1142768801111819,
          -0.19384423607193157,
          -0.15102079478839103,
          -0.24141071296799027,
          0.1260114685141535,
          0.11581814928468122,
          0.1483334468956995,
          -0.15300161458176983,
          0.0021232532533137626,
          -0.09023003106435346,
          -0.0040234916728637896,
          0.04542386091795897,
          -0.14806899363851486,
          -0.18833830875727195,
          -0.2419792502880229,
          0.027165914529216698,
          -0.015990940692770208,
          0.061989830493929934,
          0.08827292540348648,
          -0.10475550581239831,
          -0.13912148053620746,
          -0.05353372846362781,
          0.05097844522177673,
          -0.17774400144090202,
          -0.09021810031784358,
          -0.12857353649244957,
          -0.1804513217053865,
          0.2802545503645177,
          -0.30110814763325033,
          -0.1597429490014021,
          0.006202006701893857,
          -0.20750062049052748,
          -0.18444331408323217,
          0.362152098305364,
          0.013348719412868365,
          0.34485042967330054,
          -0.0677474477283308,
          0.12387864343149861,
          -0.34125090988941875,
          0.12837155315434448
        ],
        [
          -0.1111161645429253,
          0.1177280228803788,
          -0.07207330639388064,
          0.03897705741605429,
          0.18385271299315462,
          -0.09502207580575404,
          -0.10125476967254876,
          -0.01871084744162944,
          -0.0517138015912946,
          -0.13097555902445052,
          0.040727912290145614,
          0.15543354956057776,
          0.2891827531136855,
          0.35907249337384756,
          -0.3039681488498323,
          -0.06824867248325898,
          -0.3574399798690108,
          -0.07796188368333178,
          -0.07033939168212465,
          -0.17860457430879081,
          0.07834871992839429,
          0.14159261131195622,
          0.13644144234828395,
          -0.2374697891717251,
          0.3615738985803608,
          -0.2634735132949054,
          0.2101151598987476,
          0.37373205568319334,
          -0.04274766342314478,
          0.20940764068982134,
          -0.03827017175065133,
          0.225470017864057,
          -0.05618579086193367,
          -0.18401307838846087,
          0.18542219446130448,
          0.02293214798548436,
          -0.13125371495817556,
          0.3473665673043767,
          0.03327573247457827,
          0.046737774056018165,
          0.26239669600156973,
          0.07248266065602624,
          0.21386484402887965,
          -0.13819557874273555,
          0.01581386274288239,
          -0.026272052305537887,
          -0.07650485303318762,
          -0.19720527593671514,
          0.10084573144162057,
          0.22904454648775538,
          0.024022522206355878,
          -0.1383168350695273,
          -0.1475553575495355,
          -0.0987899731069124,
          -0.09427452864498885,
          0.04327482214592518,
          0.10046200459974373,
          0.34435471732014217,
          0.32906970007700365
        ],
        [
          0.16846518738441557,
          0.08764354775117895,
          0.17418351095715445,
          -0.17831218659201778,
          0.2301285039423921,
          -0.048423971492782845,
          0.22744483707863453,
          -0.15072552519763388,
          0.03559244354028294,
          -0.24222421234491082,
          0.05699578854216914,
          -0.17357040449285785,
          0.03997959784495742,
          -0.10183801903933412,
          -0.029841849071375125,
          0.2735550284937801,
          0.020905875070741556,
          0.2544433668427192,
          -0.22129249019435632,
          0.06280626731083518,
          -0.41889712185425815,
          0.0647258546390001,
          0.1917055183077541,
          -0.3719979849385524,
          0.12693883448175136,
          0.061224260074646666,
          0.2916230001943296,
          0.6252933287358512,
          0.1870311572051015,
          -0.017464201538625268,
          -0.23989097416228805,
          0.015088740642667737,
          0.3468917310671197,
          0.01544136774132205,
          -0.016866656322577347,
          0.3139419137208843,
          0.11590708822617059,
          -0.058034333012268076,
          0.161822023948864,
          -0.06716602556209438,
          -0.04577761059795664,
          0.20420583521074112,
          -0.20492032698296342,
          0.3618990051117913,
          0.060197035809912605,
          -0.0031992584472458844,
          -0.06650412805607521,
          0.06913834485507755,
          0.3637793605263391,
          0.17587338766917882,
          0.13429189890294313,
          0.19560546658340325,
          0.0036133862489143333,
          -0.2544094104728816,
          -0.2254813808917055,
          0.1317491235514709,
          0.16438858474355833,
          0.09024144202631412,
          0.10049705734239353
        ],
        [
          0.14952132517376443,
          -0.22927557352493738,
          -0.03075676575507033,
          -0.01652654096496546,
          -0.2794891442753596,
          -0.1215884732988612,
          0.1141206170539064,
          -0.18134183619889743,
          0.3190559485601899,
          -0.09392419959776886,
          0.05336735381235489,
          -0.11836231598268056,
          -0.00502000635029274,
          -0.13007485180140274,
          -0.339370496362806,
          0.26473415060870636,
          -0.005554452285099266,
          -0.06885284751306273,
          0.035969693390163725,
          -0.0181838003533098,
          -0.06711001378144793,
          0.11637826462804554,
          -0.09261458859440089,
          0.039761858662617416,
          -0.007265009656393105,
          0.37744767331330575,
          -0.2687028814624244,
          0.20009218933546516,
          -0.33202547442513736,
          0.2666193100279192,
          -0.33438176750549725,
          0.06218808905226375,
          0.40815295908856986,
          0.18350695439291081,
          0.012381964735989114,
          -0.07147727299187019,
          -0.34855938048102775,
          0.2470903793124574,
          -0.0049751392113323994,
          0.02766511348878595,
          -0.22621394054826008,
          0.0562806368961704,
          0.08892829342644085,
          0.05930432344169367,
          -0.2621206036017598,
          -0.626051861108956,
          0.21218778412912553,
          -0.08369669580199661,
          -0.18521307547847954,
          -0.14882860102848144,
          0.2303791534225161,
          0.22390586104548826,
          -0.011590161517349698,
          -0.04462734783954799,
          -0.16164700757398534,
          -0.06787289999181723,
          0.06298283359432212,
          -0.3701256534512836,
          0.08207982951675481
        ],
        [
          -0.4746552533182943,
          -0.0883268975568048,
          -0.18013833535929497,
          0.044488642433394836,
          -0.22770566324947225,
          0.23276104171722525,
          -0.30634676118762993,
          -0.08045132026273488,
          0.13386992995276484,
          0.21376425236575566,
          0.012939823071910269,
          0.06509791586267477,
          0.13598070051252809,
          0.38192537941488225,
          -0.03183148234526801,
          0.16595383428325675,
          0.24997609024268946,
          0.022415012225607545,
          -0.14148980386795026,
          0.05891548162069003,
          0.16891999867777535,
          -0.05656045047084926,
          -0.279426502007427,
          -0.511430938454174,
          0.3123357588152531,
          -0.15921664528642657,
          -0.09224630543528846,
          0.10275277066475755,
          0.0686336896336019,
          0.003017976127763194,
          -0.25662349809748,
          -0.22248366111015738,
          -0.16370149557908603,
          -0.508150414618396,
          0.012855499875777296,
          0.04815956702491081,
          0.1762504134665507,
          0.2385858764092901,
          0.1076733949394248,
          0.2439136435085619,
          -0.425582443305115,
          -0.02245114291745665,
          0.006681581868238666,
          0.0063249431389711865,
          0.12247443623694683,
          -0.1759321823870642,
          0.33579818953179563,
          -0.24409729395602145,
          -0.08665166089665867,
          -0.01744015581213559,
          0.09067034936522457,
          -0.1734322963425856,
          0.19738458942424067,
          0.11168901708608124,
          -0.30033148885448574,
          0.0814750260392149,
          0.039762841443796326,
          0.045521817525631225,
          0.1189597387948439
        ],
        [
          -0.15760849672716976,
          0.2657697137963501,
          -0.028416760740947948,
          0.1609837647661299,
          -0.07730995506647287,
          -0.04339414439581844,
          0.2388382171464169,
          0.3017379607863716,
          -0.22276814920964064,
          -0.04047100362140911,
          -0.1657471748656692,
          0.2423567889299953,
          -0.031042753085023685,
          0.06877590495687196,
          -0.057326512044694716,
          -0.06267834579581998,
          -0.03555819292680387,
          -0.084781309209798,
          -0.28560394818483786,
          0.00871576451699628,
          -0.19941677955773762,
          0.1548517259789035,
          -0.17012135592766486,
          0.044453685016239475,
          0.0153254260428121,
          -0.2899997122418488,
          -0.011101746182617972,
          -0.07258740878961581,
          -0.09823948623015585,
          0.035133441972765495,
          -0.13457847660214534,
          -0.15610696085844106,
          -0.025997823858826704,
          -0.18031555835538482,
          0.29802739622195396,
          -0.027134400580911974,
          -0.10281548509389807,
          -0.5288264298824449,
          0.2580845419113584,
          -0.1626054546028426,
          0.12598133575734854,
          0.01683528992714546,
          -0.08204536249913055,
          0.12575180467824676,
          0.01283889448195272,
          -0.015350234620695636,
          -0.013326252762990633,
          0.09761033567424979,
          -0.12928427761573186,
          -0.26752300721709543,
          0.06407347211987068,
          -0.052713795969256294,
          0.06399969447330696,
          0.13126406572534358,
          -0.05635035378056512,
          -0.06018353988416582,
          0.16354361343847426,
          -0.19071523830281875,
          0.045440368855814345
        ],
        [
          -0.006457202465191414,
          -0.19377720724509578,
          -0.09507077330199919,
          -0.6901459323197089,
          -0.03825210089809061,
          0.14423006998420512,
          -0.38481273577188296,
          -0.10466529592819347,
          0.015207880693121177,
          0.3367968226880866,
          0.09387000195230942,
          0.40982639212332467,
          -0.0953490129846433,
          -0.028353203597994134,
          -0.23735769037172497,
          -0.22039507924748286,
          -0.09212841556200296,
          -0.45095145989553154,
          -0.32735302193518145,
          -0.2183842419728579,
          -0.013250551482061454,
          -0.03306254150680905,
          -0.19534360229006736,
          -0.025224223672087473,
          -0.22558251267432716,
          0.36159403979478993,
          0.09271885635179769,
          0.150569932673315,
          -0.3171570501004075,
          -0.22603955603283368,
          0.03375812038353404,
          0.12937039652209462,
          -0.13053077510766356,
          -0.09653509138154268,
          0.19893832757218016,
          0.03323779318943171,
          -0.12134848047751369,
          0.2946164245599316,
          -0.09046003590553278,
          0.06677126835436213,
          0.1348783207045978,
          -0.07260232531768528,
          0.1768016272543869,
          0.25571040503705145,
          0.08301285280457431,
          -0.34481755021386906,
          -0.1998439145683306,
          0.23811693833990216,
          -0.18499325754579168,
          -0.21561960488613666,
          -0.16664967264291874,
          0.1731095390448243,
          0.2419144131988872,
          0.21562503046934878,
          0.26475035213543396,
          0.052602056109135646,
          0.2433352043300187,
          -0.05987092759387183,
          0.22833891954994695
        ],
        [
          0.05205995993038995,
          -0.10922616032819911,
          0.011074997334557258,
          0.02599271268714081,
          0.367212817238687,
          -0.07738846309935345,
          -0.18996530694366645,
          0.006893878110364262,
          0.1506020079535813,
          -0.043584838059900995,
          -0.2890537574535211,
          -0.2298709128577863,
          0.09452986316000306,
          -0.12423971061475594,
          -0.014368691650229174,
          -0.2552217149954133,
          0.14928009008290521,
          0.058576791895041294,
          0.17196759139275888,
          0.13839370212590646,
          0.24079235199831522,
          -0.07295476438756301,
          0.20344424997157473,
          -0.2631801218068865,
          -0.17253972323121225,
          0.2798026662410016,
          0.11016314981754585,
          -0.0890530986688516,
          0.15604831000075928,
          0.07913872050339578,
          -0.40042188167651105,
          -0.10904389869922664,
          0.13658638926755845,
          0.04162432153805808,
          0.31018878306813524,
          0.10933744825157075,
          -0.06874457607015076,
          0.2612847017910523,
          -0.02035090836207054,
          0.06544481429889443,
          -0.21884754552378663,
          0.010112874923503438,
          -0.15556476619932968,
          -0.025827235118448328,
          0.10971653264861884,
          0.03283537991523995,
          0.13604561736070375,
          -0.3104372282832672,
          0.05907344443375203,
          0.17194537724659997,
          -0.2614841965338828,
          0.0458781800464282,
          0.07994162033337429,
          0.19088316268170774,
          0.3240245080482535,
          -0.16666076304550234,
          -0.26959859575244405,
          0.03768235902998549,
          -0.20082519955460248
        ],
        [
          0.15787669610387028,
          0.29118316953046103,
          0.02044275648224554,
          -0.007346931542649058,
          0.06351690389020671,
          -0.1713274742974167,
          -0.15385516719939435,
          -0.11859704261867605,
          0.27179257124888495,
          -0.06555913994012551,
          -0.1814283268318315,
          -0.10376911131192364,
          -0.19358278900384826,
          0.0458236731521546,
          -0.05883074449360852,
          -0.2829431463343718,
